<?xml version="1.0"?>
<opencv_storage>
<myhaar type_id="opencv-haar-classifier">
  <size>
    24 24</size>
  <stages>
    <_>
      <trees>
        <_>
          <_>
            <feature>
              <rects>
                <_>
                  0 4 22 4 -1.</_>
                <_>
                  0 6 22 2 2.</_></rects>
              <tilted>0</tilted></feature>
            <threshold>0.0498840697109699</threshold>
            <left_val>-1.</left_val>
            <right_val>0.8088740110397339</right_val></_></_></trees>
      <stage_threshold>0.8088740110397339</stage_threshold>
      <parent>-1</parent>
      <next>-1</next></_>
    <_>
      <trees>
        <_>
          <_>
            <feature>
              <rects>
                <_>
                  4 0 16 8 -1.</_>
                <_>
                  8 0 8 8 2.</_></rects>
              <tilted>0</tilted></feature>
            <threshold>0.0334812812507153</threshold>
            <left_val>-0.7978780269622803</left_val>
            <right_val>0.9423871040344238</right_val></_></_>
        <_>
          <_>
            <feature>
              <rects>
                <_>
                  18 6 6 4 -1.</_>
                <_>
                  21 6 3 2 2.</_>
                <_>
                  18 8 3 2 2.</_></rects>
              <tilted>0</tilted></feature>
            <threshold>3.0224490910768509e-003</threshold>
            <left_val>-0.5160654187202454</left_val>
            <right_val>0.6583216786384583</right_val></_></_>
        <_>
          <_>
            <feature>
              <rects>
                <_>
                  0 6 6 4 -1.</_>
                <_>
                  0 6 3 2 2.</_>
                <_>
                  3 8 3 2 2.</_></rects>
              <tilted>0</tilted></feature>
            <threshold>2.9762610793113708e-003</threshold>
            <left_val>-0.9517139792442322</left_val>
            <right_val>0.7587006092071533</right_val></_></_></trees>
      <stage_threshold>-1.0912699699401855</stage_threshold>
      <parent>0</parent>
      <next>-1</next></_>
    <_>
      <trees>
        <_>
          <_>
            <feature>
              <rects>
                <_>
                  4 4 10 3 -1.</_>
                <_>
                  9 4 5 3 2.</_></rects>
              <tilted>0</tilted></feature>
            <threshold>0.0143999904394150</threshold>
            <left_val>-0.8185120820999146</left_val>
            <right_val>0.8897429108619690</right_val></_></_>
        <_>
          <_>
            <feature>
              <rects>
                <_>
                  0 16 24 3 -1.</_>
                <_>
                  6 16 12 3 2.</_></rects>
              <tilted>0</tilted></feature>
            <threshold>-0.0596481710672379</threshold>
            <left_val>0.7382438182830811</left_val>
            <right_val>-0.9755023717880249</right_val></_></_>
        <_>
          <_>
            <feature>
              <rects>
                <_>
                  0 5 6 8 -1.</_>
                <_>
                  0 5 3 4 2.</_>
                <_>
                  3 9 3 4 2.</_></rects>
              <tilted>0</tilted></feature>
            <threshold>0.0112968496978283</threshold>
            <left_val>-0.8955188989639282</left_val>
            <right_val>0.7387316226959229</right_val></_></_>
        <_>
          <_>
            <feature>
              <rects>
                <_>
                  7 3 10 2 -1.</_>
                <_>
                  7 4 10 1 2.</_></rects>
              <tilted>0</tilted></feature>
            <threshold>1.1352449655532837e-003</threshold>
            <left_val>-0.9885228276252747</left_val>
            <right_val>0.6050794720649719</right_val></_></_>
        <_>
          <_>
            <feature>
              <rects>
                <_>
                  3 0 2 6 -1.</_>
                <_>
                  3 3 2 3 2.</_></rects>
              <tilted>0</tilted></feature>
            <threshold>-5.3506759286392480e-005</threshold>
            <left_val>0.4761396944522858</left_val>
            <right_val>-0.9936313033103943</right_val></_></_></trees>
      <stage_threshold>0.1054318994283676</stage_threshold>
      <parent>1</parent>
      <next>-1</next></_>
    <_>
      <trees>
        <_>
          <_>
            <feature>
              <rects>
                <_>
                  1 6 12 1 -1.</_>
                <_>
                  5 6 4 1 3.</_></rects>
              <tilted>0</tilted></feature>
            <threshold>-2.6808099355548620e-003</threshold>
            <left_val>0.8974565267562866</left_val>
            <right_val>-0.9688025116920471</right_val></_></_>
        <_>
          <_>
            <feature>
              <rects>
                <_>
                  5 4 14 20 -1.</_>
                <_>
                  5 14 14 10 2.</_></rects>
              <tilted>0</tilted></feature>
            <threshold>-0.1086480990052223</threshold>
            <left_val>0.9064080715179443</left_val>
            <right_val>-0.8819093704223633</right_val></_></_>
        <_>
          <_>
            <feature>
              <rects>
                <_>
                  0 6 2 1 -1.</_>
                <_>
                  1 6 1 1 2.</_></rects>
              <tilted>0</tilted></feature>
            <threshold>-2.1043049855506979e-005</threshold>
            <left_val>0.7453610897064209</left_val>
            <right_val>-0.8830189704895020</right_val></_></_></trees>
      <stage_threshold>-1.1053509712219238</stage_threshold>
      <parent>2</parent>
      <next>-1</next></_>
    <_>
      <trees>
        <_>
          <_>
            <feature>
              <rects>
                <_>
                  12 7 12 2 -1.</_>
                <_>
                  12 7 12 1 2.</_></rects>
              <tilted>1</tilted></feature>
            <threshold>0.0194452702999115</threshold>
            <left_val>-0.6879926919937134</left_val>
            <right_val>0.8787745833396912</right_val></_></_>
        <_>
          <_>
            <feature>
              <rects>
                <_>
                  0 9 24 15 -1.</_>
                <_>
                  6 9 12 15 2.</_></rects>
              <tilted>0</tilted></feature>
            <threshold>-0.2626700997352600</threshold>
            <left_val>0.4681535065174103</left_val>
            <right_val>-0.9999986886978149</right_val></_></_>
        <_>
          <_>
            <feature>
              <rects>
                <_>
                  4 4 16 1 -1.</_>
                <_>
                  8 4 8 1 2.</_></rects>
              <tilted>0</tilted></feature>
            <threshold>4.0687969885766506e-003</threshold>
            <left_val>-0.7886680960655212</left_val>
            <right_val>0.7309709191322327</right_val></_></_>
        <_>
          <_>
            <feature>
              <rects>
                <_>
                  2 4 20 6 -1.</_>
                <_>
                  2 7 20 3 2.</_></rects>
              <tilted>0</tilted></feature>
            <threshold>0.1098539009690285</threshold>
            <left_val>-0.8201776146888733</left_val>
            <right_val>0.7219529151916504</right_val></_></_>
        <_>
          <_>
            <feature>
              <rects>
                <_>
                  1 20 12 4 -1.</_>
                <_>
                  1 20 6 2 2.</_>
                <_>
                  7 22 6 2 2.</_></rects>
              <tilted>0</tilted></feature>
            <threshold>-4.2720311321318150e-003</threshold>
            <left_val>0.7415567040443420</left_val>
            <right_val>-0.9449694752693176</right_val></_></_></trees>
      <stage_threshold>-1.2540149688720703</stage_threshold>
      <parent>3</parent>
      <next>-1</next></_>
    <_>
      <trees>
        <_>
          <_>
            <feature>
              <rects>
                <_>
                  1 10 21 7 -1.</_>
                <_>
                  8 10 7 7 3.</_></rects>
              <tilted>0</tilted></feature>
            <threshold>-0.1275663971900940</threshold>
            <left_val>0.7990369200706482</left_val>
            <right_val>-0.7736492753028870</right_val></_></_>
        <_>
          <_>
            <feature>
              <rects>
                <_>
                  9 2 12 6 -1.</_>
                <_>
                  13 2 4 6 3.</_></rects>
              <tilted>0</tilted></feature>
            <threshold>0.0456164889037609</threshold>
            <left_val>-0.4069805145263672</left_val>
            <right_val>0.8511925935745239</right_val></_></_>
        <_>
          <_>
            <feature>
              <rects>
                <_>
                  0 22 24 1 -1.</_>
                <_>
                  8 22 8 1 3.</_></rects>
              <tilted>0</tilted></feature>
            <threshold>-0.0348492302000523</threshold>
            <left_val>0.8729658126831055</left_val>
            <right_val>-0.6531558036804199</right_val></_></_></trees>
      <stage_threshold>-0.5756124854087830</stage_threshold>
      <parent>4</parent>
      <next>-1</next></_>
    <_>
      <trees>
        <_>
          <_>
            <feature>
              <rects>
                <_>
                  0 5 21 9 -1.</_>
                <_>
                  0 8 21 3 3.</_></rects>
              <tilted>0</tilted></feature>
            <threshold>0.0771259069442749</threshold>
            <left_val>-0.9402024745941162</left_val>
            <right_val>0.9465870261192322</right_val></_></_>
        <_>
          <_>
            <feature>
              <rects>
                <_>
                  13 6 10 6 -1.</_>
                <_>
                  13 8 10 2 3.</_></rects>
              <tilted>0</tilted></feature>
            <threshold>6.1309128068387508e-003</threshold>
            <left_val>-0.9957904219627380</left_val>
            <right_val>0.6058663129806519</right_val></_></_>
        <_>
          <_>
            <feature>
              <rects>
                <_>
                  1 2 7 8 -1.</_>
                <_>
                  1 6 7 4 2.</_></rects>
              <tilted>0</tilted></feature>
            <threshold>0.0427907891571522</threshold>
            <left_val>-0.9901980161666870</left_val>
            <right_val>0.9561805725097656</right_val></_></_>
        <_>
          <_>
            <feature>
              <rects>
                <_>
                  21 0 3 9 -1.</_>
                <_>
                  22 3 1 3 9.</_></rects>
              <tilted>0</tilted></feature>
            <threshold>-7.9700965434312820e-003</threshold>
            <left_val>-1.</left_val>
            <right_val>-1.</right_val></_></_>
        <_>
          <_>
            <feature>
              <rects>
                <_>
                  0 14 24 2 -1.</_>
                <_>
                  8 14 8 2 3.</_></rects>
              <tilted>0</tilted></feature>
            <threshold>-0.0215879902243614</threshold>
            <left_val>0.9684697985649109</left_val>
            <right_val>-0.9999985098838806</right_val></_></_></trees>
      <stage_threshold>0.5307251214981079</stage_threshold>
      <parent>5</parent>
      <next>-1</next></_></stages></myhaar>
</opencv_storage>
